svm_type nu_svr
kernel_type rbf
gamma 0.1
nr_class 2
total_sv 5
rho -0.572167
SV
-2.398016289185119 1:0.16648 2:-0.03441 
-6.247445814039265 1:-0.298893 2:-0.858809 
3.77481549195413 1:1 2:-1 
16.35072122556035 1:-0.901835 2:0.424804 
-11.48007461429009 1:-1 2:1 
